customer weight coord_x coord_y
1 394.0 -4.65 40.28
2 324.0 -5.08 40.28
3 1257.0 -5.13 40.14
4 458.0 -4.58 40.46
5 1166.0 -5.28 40.18
6 463.0 -4.77 40.3
7 844.0 -4.43 40.46
8 153.0 -5.03 40.29
9 50.0 -4.94 40.72
10 130.0 -5.08 40.94
11 70.0 -4.91 40.7
12 229.0 -4.86 40.26
13 206.0 -5.13 40.21
14 135.0 -4.53 40.59
15 191.0 -5.1 41.07
16 147.0 -5.14 40.26
17 172.0 -4.99 40.41
18 461.0 -4.39 40.5
19 128.0 -4.85 41.0
20 238.0 -4.93 40.19
21 187.0 -4.54 40.8
22 271.0 -4.82 40.28
23 359.0 -5.03 40.23
24 115.0 -4.89 40.6
25 221.0 -4.77 41.0
26 160.0 -5.49 40.25
27 192.0 -4.92 40.39
28 545.0 -4.69 40.4
29 141.0 -5.11 40.35
30 164.0 -4.87 40.36
31 78.0 -4.77 40.85
32 135.0 -4.76 41.11
33 486.0 -4.91 40.25
34 481.0 -4.7 40.32
35 240.0 -5.16 40.17
36 59.0 -4.8 40.84
37 329.0 -4.94 40.29
38 201.0 -4.68 40.47
39 183.0 -5.0 40.21
40 203.0 -5.41 40.51
41 147.0 -4.9 40.33
42 179.0 -4.83 40.38
43 682.0 -4.62 40.27
44 266.0 -4.54 40.31
45 813.0 -4.48 40.37
46 653.0 -4.29 40.62
47 210.0 -4.48 40.53
48 153.0 -4.68 40.77
49 143.0 -4.65 40.89
50 1119.0 -4.87 41.01
51 430.0 -4.99 41.07
52 208.0 -4.96 40.97
53 147.0 -5.02 40.84
54 70.0 -5.03 40.72
55 174.0 -4.92 40.62
56 316.0 -5.47 40.41
57 199.0 -5.64 40.38
58 508.0 -5.55 40.29
59 257.0 -5.4 40.32
60 157.0 -5.28 40.34
61 261.0 -4.86 40.55
62 83.0 -4.76 40.6
63 350.0 -4.87 40.4
64 242.0 -4.8 40.46
65 185.0 -5.21 40.69
66 42.0 -4.78 40.91
67 90.0 -4.88 40.8
68 105.0 -4.72 40.93
69 230.0 -4.43 40.67
70 172.0 -5.05 40.37
71 171.0 -5.1 40.57
72 557.0 -5.29 40.51
73 88.0 -5.17 40.33
74 172.0 -4.79 40.77
75 721.3 -4.66 40.65
76 96.0 -3.03 41.92
77 33.0 -3.66 42.29
78 40.0 -3.6 42.33
79 104.0 -3.13 42.5
80 235.0 -3.61 43.12
81 49.0 -3.67 41.62
82 58.0 -3.8 41.74
83 458.0 -3.31 42.99
84 92.0 -3.44 42.86
85 141.0 -3.47 43.07
86 113.0 -3.65 43.04
87 98.0 -3.77 43.02
88 107.0 -3.55 42.83
89 119.0 -3.11 41.95
90 60.0 -2.98 41.95
91 212.0 -4.02 42.4
92 52.0 -3.85 42.05
93 92.0 -3.93 41.85
94 79.0 -4.02 41.83
95 0.0 -3.29 43.12
96 88.0 -3.07 41.94
97 60.0 -3.75 41.68
98 74.0 -3.65 42.04
99 415.0 -3.57 42.94
100 103.0 -3.58 42.45
101 45.0 -3.74 42.39
102 116.0 -3.22 42.98
103 149.0 -3.23 42.79
104 129.0 -3.38 42.8
105 0.0 -3.8 42.94
106 74.0 -3.74 42.74
107 309.0 -3.98 42.59
108 120.0 -4.2 42.61
109 211.0 -4.23 42.44
110 124.0 -4.12 42.28
111 980.1 -3.67 42.35
112 36.0 -3.78 42.3
113 87.0 -3.83 42.48
114 53.0 -3.88 42.4
115 52.0 -3.83 42.34
116 122.0 -3.88 42.24
117 49.0 -3.96 42.22
118 60.0 -3.86 42.09
119 78.0 -3.97 42.07
120 189.0 -3.78 42.0
121 48.0 -3.71 42.13
122 107.0 -3.51 42.26
123 56.0 -3.66 42.22
124 80.0 -3.52 42.03
125 82.0 -3.8 41.81
126 70.0 -3.87 41.75
127 99.0 -4.0 41.73
128 78.0 -3.82 41.59
129 223.0 -3.91 41.66
130 1653.0 -3.67 41.65
131 65.0 -3.7 41.53
132 68.0 -3.52 41.64
133 94.0 -3.44 41.7
134 80.0 -3.57 41.8
135 75.0 -3.45 41.86
136 169.0 -3.33 41.84
137 169.0 -3.17 41.85
138 74.0 -3.4 42.35
139 459.0 -3.35 42.56
140 255.0 -3.39 42.69
141 50.0 -3.15 42.63
142 2768.0 -2.99 42.69
143 131.0 -2.69 42.71
144 246.0 -3.16 42.42
145 169.0 -3.21 42.31
146 198.0 -3.27 42.03
147 231.0 -3.06 42.06
148 97.0 -3.66 41.83
149 17.0 -3.31 42.16
150 4.0 -3.48 42.45
151 152.0 -3.67 42.55
152 386.0 -5.85 42.16
153 270.0 -4.98 42.68
154 216.0 -5.67 42.16
155 245.0 -5.56 42.43
156 323.0 -6.67 42.65
157 188.0 -6.91 42.71
158 1821.0 -5.9 42.29
159 146.0 -6.97 42.61
160 1539.0 -6.44 42.65
161 694.0 -5.94 42.51
162 243.0 -6.67 42.38
163 216.0 -5.68 42.34
164 100.0 -6.57 42.74
165 223.0 -4.85 42.98
166 209.0 -6.72 42.49
167 506.0 -5.81 42.45
168 263.0 -6.62 42.62
169 175.0 -5.52 42.4
170 361.0 -6.16 42.97
171 952.0 -6.72 42.6
172 592.0 -6.67 42.58
173 175.0 -6.77 42.84
174 137.0 -5.55 42.97
175 817.0 -6.72 42.55
176 593.0 -5.83 42.59
177 209.0 -5.75 42.8
178 253.0 -6.78 42.49
179 441.0 -6.17 42.19
180 449.0 -6.45 42.57
181 221.0 -5.84 42.25
182 179.0 -5.6 42.11
183 344.0 -5.77 42.61
184 443.0 -6.5 42.61
185 413.0 -6.85 42.57
186 383.0 -5.1 42.93
187 495.0 -5.66 42.73
188 231.0 -5.15 42.64
189 303.0 -6.58 42.64
190 576.0 -5.68 42.47
191 317.0 -6.63 42.27
192 287.0 -5.22 42.78
193 333.0 -6.33 42.66
194 340.0 -5.53 42.74
195 539.0 -5.26 42.66
196 294.0 -5.87 42.46
197 386.0 -6.26 42.74
198 193.0 -5.75 42.31
199 363.0 -5.65 42.24
200 2486.4 -5.57 42.57
201 247.0 -6.37 42.38
202 397.0 -6.24 42.31
203 424.0 -5.87 42.64
204 256.0 -6.11 42.57
205 299.0 -5.38 42.5
206 137.0 -5.44 42.5
207 501.0 -5.52 42.85
208 175.0 -6.45 42.52
209 319.0 -6.18 42.83
210 282.0 -6.39 42.72
211 210.0 -6.98 42.55
212 217.0 -5.86 42.69
213 313.0 -5.56 42.52
214 200.0 -5.93 42.31
215 336.0 -6.4 42.87
216 370.0 -6.51 42.81
217 152.0 -5.66 42.3
218 964.9 -6.57 42.51
219 279.0 -6.68 42.48
220 165.0 -4.96 42.89
221 387.0 -6.77 42.42
222 402.0 -6.01 42.65
223 175.0 -5.86 42.2
224 323.0 -6.07 42.26
225 140.0 -5.85 42.29
226 386.0 -5.97 42.36
227 465.0 -6.01 42.82
228 233.0 -5.76 42.7
229 835.0 -5.61 42.81
230 219.0 -5.78 42.23
231 396.0 -5.16 42.84
232 3249.0 -5.65 42.61
233 183.0 -6.63 42.66
234 381.0 -5.91 42.39
235 313.0 -5.99 42.99
236 555.0 -6.0 42.47
237 103.0 -5.72 42.41
238 270.0 -5.4 42.76
239 212.0 -6.27 42.44
240 416.0 -5.91 42.24
241 216.0 -5.92 42.36
242 508.0 -5.73 42.35
243 214.0 -5.83 42.74
244 644.0 -5.84 42.48
245 273.0 -5.62 42.54
246 319.0 -5.63 42.65
247 233.0 -6.86 42.5
248 595.0 -5.89 42.33
249 758.0 -6.5 42.71
250 522.0 -6.32 42.55
251 225.0 -6.85 42.66
252 420.0 -5.87 42.54
253 232.0 -5.78 42.38
254 419.0 -5.46 42.59
255 115.0 -5.82 42.31
256 152.0 -5.41 42.98
257 145.0 -5.42 42.88
258 460.0 -5.23 42.55
259 259.0 -6.03 42.4
260 272.0 -6.11 42.43
261 385.0 -5.63 42.41
262 569.0 -5.68 42.57
263 151.0 -5.41 42.83
264 659.0 -6.76 42.76
265 241.0 -5.54 42.49
266 362.0 -6.95 42.66
267 263.0 -5.33 42.77
268 588.0 -5.38 42.67
269 2022.0 -6.35 42.98
270 215.0 -5.77 42.5
271 667.0 -6.77 42.56
272 127.0 -5.58 42.27
273 1119.0 -6.8 42.71
274 270.0 -6.18 42.64
275 151.0 -5.58 42.18
276 395.0 -5.6 42.34
277 380.0 -6.01 42.58
278 403.0 -6.02 42.29
279 220.0 -6.05 42.5
280 270.0 -5.54 42.11
281 932.0 -5.54 42.65
282 846.0 -5.92 42.43
283 346.0 -5.92 42.47
284 344.0 -5.38 42.53
285 477.0 -5.49 42.52
286 301.0 -5.84 42.38
287 322.0 -4.97 42.54
288 180.0 -5.72 42.26
289 306.0 -5.7 42.95
290 142.0 -5.52 42.19
291 892.0 -6.65 42.83
292 201.0 -5.93 42.88
293 307.0 -5.89 42.77
294 1179.0 -5.66 42.87
295 360.0 -6.43 42.3
296 2713.0 -6.14 42.46
297 327.0 -6.1 42.32
298 418.0 -5.98 42.18
299 208.0 -5.75 42.15
300 202.0 -5.56 42.22
301 556.0 -5.45 42.1
302 227.0 -5.47 42.43
303 196.0 -5.51 42.35
304 164.0 -5.22 42.29
305 930.0 -5.01 42.36
306 318.0 -5.19 42.43
307 220.0 -5.43 42.17
308 753.0 -5.47 42.29
309 307.0 -5.35 42.39
310 269.0 -5.01 42.57
311 181.0 -5.12 42.52
312 429.0 -4.97 42.82
313 1116.0 -5.09 42.77
314 664.0 -5.26 42.9
315 90.0 -5.04 43.01
316 209.0 -4.96 43.16
317 198.0 -5.26 43.03
318 143.0 -4.45 42.16
319 35.0 -4.02 42.78
320 198.0 -4.59 42.81
321 565.0 -4.56 41.88
322 196.0 -4.3 42.33
323 170.0 -4.16 42.78
324 177.0 -4.83 42.51
325 95.0 -4.46 41.88
326 396.0 -4.77 42.87
327 279.0 -4.49 41.95
328 181.0 -4.61 42.08
329 178.0 -4.32 41.96
330 185.0 -4.84 42.62
331 173.0 -4.51 43.01
332 813.0 -4.33 42.9
333 752.0 -4.54 42.89
334 1419.0 -4.34 42.78
335 1344.0 -4.84 42.74
336 387.0 -4.67 42.76
337 144.0 -4.57 42.61
338 427.0 -4.31 42.67
339 689.0 -4.37 42.56
340 581.0 -4.74 42.59
341 184.0 -4.78 42.54
342 113.0 -4.69 42.44
343 258.0 -4.41 42.25
344 377.0 -4.91 42.32
345 197.0 -4.87 42.23
346 262.0 -4.88 42.04
347 179.0 -4.76 41.91
348 1327.4 -4.55 42.0
349 177.0 -4.46 42.09
350 325.0 -4.63 42.09
351 157.0 -4.77 42.04
352 112.0 -4.41 41.97
353 390.0 -4.21 41.9
354 1151.0 -4.43 41.92
355 247.0 -4.36 41.82
356 293.0 -4.24 42.05
357 340.0 -4.3 42.16
358 143.0 -4.06 41.96
359 440.0 -4.39 42.41
360 137.0 -4.67 42.23
361 622.0 -4.68 42.17
362 220.0 -4.79 42.1
363 92.0 -4.26 42.26
364 600.0 -4.55 42.41
365 92.0 -4.51 42.19
366 161.0 -6.78 40.71
367 67.0 -5.54 40.99
368 150.0 -5.39 41.05
369 86.0 -5.64 40.9
370 190.0 -5.43 40.99
371 193.0 -6.62 40.83
372 131.0 -5.88 40.92
373 114.0 -6.35 40.83
374 198.0 -6.56 41.14
375 137.0 -5.59 40.97
376 181.0 -6.17 40.74
377 176.0 -5.53 40.95
378 143.0 -5.56 40.9
379 80.0 -5.24 40.98
380 238.0 -5.73 40.34
381 325.0 -5.17 41.13
382 86.0 -5.63 40.92
383 226.0 -5.91 40.31
384 161.0 -6.3 40.89
385 100.0 -5.74 40.96
386 199.0 -6.87 40.99
387 142.0 -5.55 40.72
388 122.0 -5.53 41.03
389 494.0 -5.28 40.84
390 172.0 -6.21 40.56
391 175.0 -6.29 40.75
392 171.0 -6.58 41.18
393 71.0 -5.69 41.05
394 77.0 -5.47 40.78
395 239.0 -6.81 40.29
396 183.0 -6.73 40.3
397 91.0 -5.58 40.95
398 15.0 -6.65 40.29
399 2754.5 -5.68 40.96
400 170.0 -5.88 40.5
401 138.0 -5.91 40.55
402 693.0 -5.62 40.94
403 176.0 -5.28 40.79
404 146.0 -6.74 41.05
405 103.0 -5.25 41.17
406 165.0 -5.59 40.85
407 164.0 -5.65 41.18
408 153.0 -5.35 40.85
409 129.0 -5.76 41.19
410 105.0 -5.96 40.54
411 256.0 -6.71 41.1
412 252.0 -5.35 40.99
413 151.0 -5.4 41.0
414 13.0 -5.83 40.97
415 82.0 -5.51 40.91
416 376.0 -6.13 40.81
417 296.0 -6.47 40.73
418 685.0 -6.65 40.96
419 494.0 -6.43 41.03
420 277.0 -6.77 40.95
421 136.0 -6.65 41.09
422 268.0 -6.68 40.87
423 180.0 -6.74 40.76
424 143.0 -6.68 40.6
425 220.0 -6.73 40.53
426 326.0 -6.71 40.42
427 2983.0 -6.5 40.52
428 184.0 -6.6 40.35
429 0.0 -6.29 40.51
430 139.0 -5.72 40.74
431 261.0 -5.9 40.65
432 251.0 -6.1 40.62
433 3656.0 -5.82 40.41
434 212.0 -5.94 40.47
435 158.0 -6.04 40.4
436 226.0 -5.96 40.35
437 163.0 -5.86 40.35
438 163.0 -6.05 40.48
439 0.0 -6.28 40.62
440 270.0 -6.11 40.53
441 368.0 -6.46 40.87
442 0.0 -6.36 41.21
443 217.0 -6.5 41.19
444 461.0 -6.63 41.18
445 0.0 -6.2 41.14
446 166.0 -6.2 40.99
447 965.0 -5.24 40.9
448 148.0 -5.64 41.02
449 81.0 -5.69 40.88
450 726.0 -5.52 40.77
451 133.0 -5.53 41.1
452 145.0 -5.49 41.0
453 272.0 -5.38 41.1
454 127.0 -5.24 41.07
455 122.0 -5.2 41.03
456 146.0 -5.15 40.98
457 158.0 -5.74 41.04
458 130.0 -5.97 40.97
459 132.0 -5.93 40.81
460 232.0 -5.8 40.54
461 0.0 -5.68 40.47
462 213.0 -5.55 40.49
463 828.0 -5.68 40.58
464 267.0 -5.56 40.56
465 191.0 -5.48 40.65
466 139.0 -5.39 40.75
467 202.0 -5.27 40.75
468 134.0 -5.4 40.94
469 131.0 -5.4 40.86
470 138.0 -5.77 41.13
471 450.0 -6.0 41.11
472 123.0 -4.17 41.18
473 219.0 -4.34 41.14
474 771.0 -3.95 41.26
475 197.0 -4.11 41.16
476 860.0 -4.21 40.73
477 267.0 -4.18 41.23
478 142.0 -4.28 41.29
479 157.0 -4.12 41.34
480 199.0 -4.08 41.28
481 265.0 -4.19 41.15
482 404.0 -4.43 41.21
483 355.0 -4.03 40.92
484 184.0 -4.43 41.28
485 201.0 -4.28 41.31
486 140.0 -4.43 40.94
487 814.0 -4.01 40.86
488 261.0 -4.41 40.76
489 147.0 -4.54 41.29
490 123.0 -4.17 41.26
491 1659.0 -4.28 41.35
492 209.0 -4.44 41.39
493 171.0 -4.44 41.33
494 455.0 -4.54 41.23
495 285.0 -4.29 41.22
496 513.0 -4.38 41.02
497 636.0 -4.45 41.13
498 191.0 -4.58 41.14
499 127.0 -4.61 41.09
500 150.0 -4.55 41.01
501 98.0 -4.44 40.87
502 136.0 -4.31 40.75
503 165.0 -4.16 40.83
504 213.0 -4.3 40.91
505 104.0 -4.2 40.97
506 914.1 -4.14 40.96
507 142.0 -4.07 40.98
508 221.0 -4.16 41.07
509 519.0 -4.24 41.13
510 267.0 -3.98 41.12
511 44.0 -3.93 41.02
512 125.0 -3.81 41.09
513 254.0 -4.09 41.21
514 172.0 -3.93 41.2
515 153.0 -3.65 41.16
516 369.0 -3.77 41.31
517 392.0 -3.44 41.29
518 374.0 -3.34 41.37
519 111.0 -3.57 41.47
520 87.0 -3.68 41.39
521 154.0 -3.94 41.49
522 258.0 -4.11 41.4
523 166.0 -3.94 41.32
524 427.0 -2.86 41.92
525 289.0 -2.93 41.97
526 127.0 -2.64 41.51
527 200.0 -3.0 41.84
528 123.0 -2.45 41.68
529 185.0 -2.16 41.22
530 231.0 -2.64 41.59
531 130.0 -2.29 42.02
532 191.0 -2.41 41.97
533 236.0 -2.72 41.98
534 602.5 -2.6 41.79
535 887.0 -1.9 41.86
536 1243.0 -2.47 41.5
537 800.0 -2.24 41.26
538 238.0 -2.55 41.23
539 419.0 -2.91 41.4
540 1310.0 -2.99 41.59
541 1016.0 -3.19 41.52
542 305.0 -3.39 41.61
543 368.0 -3.12 41.81
544 159.0 -2.84 41.75
545 220.0 -2.7 41.61
546 150.0 -2.64 41.71
547 509.0 -2.01 41.79
548 177.0 -2.13 41.58
549 436.0 -5.22 41.3
550 179.0 -4.66 41.38
551 181.0 -4.63 41.53
552 123.0 -4.79 41.62
553 119.0 -4.71 41.53
554 200.0 -4.65 41.59
555 217.0 -4.33 41.52
556 141.0 -4.75 41.7
557 895.0 -4.52 41.35
558 719.0 -4.71 41.57
559 126.0 -4.77 41.74
560 546.0 -5.09 41.38
561 106.0 -5.07 41.26
562 144.0 -4.52 41.54
563 196.0 -4.69 41.47
564 460.0 -4.59 41.36
565 193.0 -5.12 41.42
566 470.0 -4.57 41.48
567 111.0 -4.82 41.33
568 150.0 -4.82 41.37
569 299.0 -4.99 41.41
570 244.0 -4.47 41.44
571 190.0 -5.29 41.47
572 131.0 -4.66 41.69
573 141.0 -4.41 41.61
574 240.0 -4.9 41.44
575 169.0 -4.84 41.46
576 173.0 -5.18 41.35
577 213.0 -4.82 41.59
578 808.0 -4.58 41.6
579 126.0 -4.29 41.66
580 292.0 -4.79 41.48
581 441.09 -4.7 41.63
582 157.0 -4.75 41.51
583 331.0 -5.1 41.83
584 119.0 -5.18 41.76
585 146.0 -4.84 41.51
586 116.0 -5.01 41.32
587 187.0 -4.86 41.69
588 149.0 -5.01 41.65
589 149.0 -4.97 41.74
590 208.0 -4.83 41.64
591 64.0 -4.92 41.59
592 1011.0 -5.02 41.52
593 118.0 -5.13 41.55
594 112.0 -5.19 41.61
595 107.0 -5.26 41.68
596 166.0 -5.3 41.74
597 945.0 -5.05 41.92
598 130.0 -5.23 41.93
599 168.0 -5.27 41.79
600 135.0 -4.89 41.85
601 123.0 -5.1 41.75
602 493.0 -5.03 42.15
603 136.0 -5.23 42.07
604 469.0 -5.21 42.21
605 985.0 -4.1 41.57
606 147.0 -4.15 41.71
607 246.0 -4.31 41.61
608 119.0 -4.31 41.75
609 88.0 -4.43 41.71
610 86.0 -4.49 41.64
611 179.0 -4.44 41.57
612 107.0 -4.59 41.66
613 279.0 -4.56 41.73
614 208.0 -4.54 41.81
615 331.0 -4.68 41.8
616 109.0 -4.22 41.55
617 316.0 -4.21 41.49
618 262.0 -4.42 41.49
619 119.0 -4.56 41.4
620 320.0 -4.66 41.43
621 247.0 -4.77 41.38
622 680.0 -4.68 41.27
623 3054.0 -4.89 41.3
624 94.0 -4.95 41.19
625 212.0 -4.8 41.15
626 248.0 -5.1 41.2
627 281.0 -5.21 41.2
628 335.0 -5.25 41.4
629 335.0 -6.37 41.7
630 292.0 -5.38 41.33
631 194.0 -6.09 41.96
632 321.0 -5.99 42.0
633 237.0 -6.0 41.64
634 148.0 -5.33 41.97
635 123.0 -5.48 41.9
636 375.0 -6.71 42.07
637 110.0 -5.75 41.59
638 185.0 -5.85 41.85
639 598.0 -6.38 41.31
640 194.0 -6.19 41.9
641 304.0 -6.03 41.79
642 313.0 -6.45 41.87
643 103.0 -5.62 41.33
644 198.0 -6.89 41.99
645 173.0 -5.59 41.46
646 243.0 -6.34 41.89
647 282.0 -5.72 41.76
648 193.0 -5.75 42.03
649 225.0 -6.46 41.95
650 201.0 -6.03 41.95
651 107.0 -5.69 41.55
652 200.0 -5.8 41.65
653 278.0 -5.65 41.45
654 213.0 -5.71 41.43
655 210.0 -5.77 42.06
656 316.0 -5.28 41.53
657 141.0 -5.72 41.63
658 222.0 -5.85 41.81
659 177.0 -6.2 41.37
660 138.0 -5.46 41.35
661 145.0 -5.47 41.49
662 212.0 -5.89 41.29
663 220.0 -5.77 41.39
664 317.0 -5.9 41.39
665 312.0 -6.26 41.74
666 378.0 -6.16 41.84
667 67.0 -5.78 41.54
668 158.0 -5.76 41.73
669 180.0 -5.93 41.57
670 249.0 -5.73 41.98
671 153.0 -5.96 41.97
672 190.0 -5.92 41.99
673 475.0 -5.97 42.07
674 231.0 -6.25 41.81
675 233.0 -6.36 41.78
676 180.0 -5.57 41.43
677 289.0 -6.51 41.74
678 196.0 -6.12 41.99
679 272.0 -5.38 41.37
680 204.0 -6.05 41.53
681 146.0 -5.57 41.25
682 266.0 -6.29 41.94
683 393.0 -6.27 41.33
684 364.0 -5.66 42.07
685 167.0 -5.52 42.0
686 316.0 -5.41 41.97
687 194.0 -5.36 41.89
688 444.0 -5.41 41.81
689 186.0 -5.49 41.71
690 1862.0 -5.41 41.51
691 218.0 -5.36 41.66
692 78.0 -5.56 41.54
693 319.0 -5.58 41.58
694 119.0 -5.67 41.61
695 169.0 -5.67 41.69
696 107.0 -5.59 41.65
697 191.0 -5.56 41.38
698 163.0 -5.89 41.61
699 168.0 -5.95 41.48
700 528.0 -6.03 41.36
701 262.0 -6.08 41.23
702 122.0 -5.79 41.27
703 348.0 -5.74 41.33
704 1074.5 -5.78 41.49
705 247.0 -5.62 41.5
706 132.0 -5.56 41.32
707 471.0 -5.48 41.24
708 185.0 -5.34 41.19
709 282.0 -5.36 41.26
710 143.0 -6.1 41.51
711 368.0 -6.24 41.44
712 228.0 -5.99 41.56
713 291.0 -6.12 41.71
714 411.0 -6.18 41.64
715 177.0 -5.93 41.71
716 313.0 -6.64 42.0
717 184.0 -6.57 42.06
718 358.0 -6.77 42.15
719 144.0 -6.87 42.06
720 205.0 -6.43 41.75
721 150.0 -6.36 42.09
722 235.0 -6.48 42.11
723 213.0 -6.17 42.13
724 139.0 -6.22 42.04
725 271.0 -6.1 41.92
726 2361.0 -5.67 41.98
727 140.0 -5.57 41.96
728 195.0 -5.61 41.85
729 250.0 -5.63 41.78
730 158.0 -5.72 41.84
731 194.0 -5.8 41.9
732 205.0 -5.87 41.94
733 275.0 -5.81 42.01
734 152.0 -5.79 42.09
735 160.0 -5.94 42.12
736 243.0 -6.1 42.06
737 297.0 -6.0 41.82
